6558 50
</s> 0.008005 0.008839 -0.007661 -0.006556 0.002733 0.006042 0.001882 0.000423 -0.007207 0.004437 -0.008713 0.002499 -0.001503 -0.001914 -0.006631 -0.003764 0.005159 0.006051 0.005938 0.003195 0.003090 -0.007605 -0.008192 0.009939 0.007603 0.006180 -0.001208 0.008031 -0.000990 0.001469 -0.000298 -0.005966 0.002625 -0.002675 -0.007651 0.009508 0.008759 -0.002190 -0.000452 0.001018 -0.007275 -0.008014 0.009109 0.000126 -0.005165 -0.006084 -0.006153 0.003394 0.000403 0.002662 
, -0.408674 -0.122242 -0.131042 -0.253370 -0.329028 -0.945781 0.834932 0.200793 -1.198034 0.528630 -0.882715 -0.403400 -0.552784 0.929674 0.228285 -0.332183 -1.066273 -0.054276 -0.854800 -1.316079 0.299634 1.490869 -0.835128 -0.577674 -0.773715 -0.136204 -0.375606 0.075037 0.152727 1.081690 0.320796 -0.146439 -0.372259 -1.188042 0.693830 -0.121680 0.796549 -0.167863 0.360727 -1.103659 -0.089337 0.458984 0.944600 -0.625898 -0.755073 -1.048151 -0.658435 1.367870 0.214553 -1.166814 
的 -0.904698 0.111729 -0.017338 0.306779 0.365593 0.502898 -1.159031 -0.293444 -1.102142 -0.404688 -0.245403 -1.909634 -0.340509 0.217409 -0.930303 2.296345 -0.440733 -0.949893 -0.043182 -1.113495 0.193741 0.863033 -0.492317 0.089842 0.353990 -0.984916 -0.295104 -1.300703 0.210899 1.381148 0.863504 -0.079502 0.601179 -0.954855 1.210470 0.421712 1.065343 -0.345839 -0.140250 0.369348 0.168850 -0.276380 0.625359 -0.302719 -0.786600 0.040309 0.993453 1.094127 -0.046963 -0.284873 
。 -1.033810 -0.168411 -0.457798 -0.163765 0.159255 -0.422607 1.107613 0.242359 -1.698727 -0.525198 -1.322199 -0.605034 0.290688 0.096677 -0.005131 0.446939 -0.535446 0.380701 -0.316638 -1.424794 0.081624 1.042440 -0.503989 -0.132893 -0.605702 -0.597281 -0.401768 -0.211097 -0.881534 1.358255 0.348434 -0.537226 0.497631 -0.617217 0.599541 -0.015678 0.717597 -0.009167 -0.310201 -0.465394 0.144399 -0.158928 0.797390 -1.394651 -0.529473 -0.665815 -0.163065 0.821996 -0.207498 -1.423831 
国 -0.908603 -3.113124 0.592317 -1.448561 2.101446 2.898349 -0.479242 0.152386 -2.235302 0.223116 2.558064 -0.127723 -0.124740 -2.259186 -0.628681 -1.592236 -1.460712 -2.485097 1.522937 1.044589 -2.260546 -0.248070 -0.448762 3.722283 2.987264 0.033966 2.087178 -0.777166 0.945832 1.152980 2.149024 0.889456 0.104914 0.781663 0.273941 0.878488 -1.341769 1.015701 -0.176842 -1.036689 -2.307112 -0.175843 -1.652060 0.039865 0.692797 3.151650 -1.411113 -0.639996 1.659977 -0.818469 
中 -1.810570 -1.897067 1.494707 -0.648064 1.265783 0.801044 -1.502604 -0.029083 -1.495041 -0.836330 2.114058 -1.022541 0.455956 -2.140685 -0.376286 0.497808 -1.295921 0.445967 1.376554 0.699613 -1.155272 1.709490 -0.281002 2.464379 0.573220 0.758332 0.703313 0.012173 0.262950 1.600535 1.528648 0.703638 -0.039480 0.956286 0.072888 0.073334 -1.493911 0.762278 -0.347839 -0.188259 -1.577899 0.407388 0.508815 1.318999 -0.598908 1.591695 -1.604009 -0.148139 1.727635 -0.929363 
、 2.347642 -0.811834 1.914351 0.177240 0.973186 3.450367 -5.494522 2.784163 3.199007 -0.728264 2.516009 -1.179405 0.020680 -1.338732 0.585757 4.199920 1.012234 0.081810 1.514812 4.443597 2.370656 -0.711119 0.212021 -2.541824 1.585001 0.200164 -1.025339 -2.480034 0.142221 -1.008505 2.525303 0.017675 0.562131 1.606932 0.166554 -0.450292 -4.139771 -0.108598 1.593477 2.687878 0.361961 -0.707182 -1.125455 4.246254 1.425090 2.821426 1.030432 -2.382720 -0.922035 -0.105742 
0 -2.281204 -4.738189 -1.578217 -2.491677 1.689371 -2.501475 2.775427 -1.226686 1.835487 -6.423871 1.838561 4.914691 0.248846 -1.326254 1.393503 -5.092258 0.549544 5.035245 -0.765944 3.181928 -2.503354 0.619111 1.716761 -1.210471 -0.902338 0.536440 0.969970 3.682756 5.537747 -1.447213 -0.568786 2.592136 1.966738 3.310518 -0.838124 1.888295 0.719704 -1.021443 0.408643 -0.605153 -0.395461 2.156159 1.568954 -1.064444 0.747687 -4.431159 -5.310205 4.917688 -4.362174 -2.872185 
在 -1.486146 0.174868 0.950409 -0.527010 0.418522 -0.266235 1.700505 -0.237463 -1.185193 0.494892 0.104184 0.033872 0.342681 1.538509 -0.986958 -1.533831 0.276068 -0.563730 -0.504183 -0.078075 -3.580163 0.454644 -0.086823 0.994965 -0.162879 -1.153624 -0.402265 0.345108 0.882796 -1.314213 -0.470312 -0.499294 -0.204374 0.562112 -1.635266 -1.885201 -0.067809 -0.073522 -2.112623 -1.030434 0.139714 -0.760535 1.148215 0.126804 -1.479642 0.317976 -0.512271 -0.627855 0.455118 0.069765 
