243003 100
</s> 0.004003 0.004419 -0.003830 -0.003278 0.001367 0.003021 0.000941 0.000211 -0.003604 0.002218 -0.004356 0.001250 -0.000751 -0.000957 -0.003316 -0.001882 0.002579 0.003025 0.002969 0.001597 0.001545 -0.003803 -0.004096 0.004970 0.003801 0.003090 -0.000604 0.004016 -0.000495 0.000735 -0.000149 -0.002983 0.001312 -0.001337 -0.003825 0.004754 0.004379 -0.001095 -0.000226 0.000509 -0.003638 -0.004007 0.004555 0.000063 -0.002582 -0.003042 -0.003076 0.001697 0.000201 0.001331 -0.004214 -0.003808 -0.000130 0.001144 0.002550 -0.003170 0.004080 0.000927 0.001120 -0.000608 0.002986 -0.002288 -0.002097 0.002158 -0.000753 0.001031 0.001805 -0.004089 -0.001983 0.002914 0.004232 0.003932 -0.003047 -0.002108 -0.000909 0.002001 -0.003788 0.002998 0.002788 -0.001599 -0.001552 -0.002238 0.004229 0.003912 -0.001180 0.004215 0.004820 0.001815 0.004983 -0.003111 -0.001532 -0.002107 -0.002907 0.002815 0.001579 0.000425 -0.002194 0.001524 0.003059 0.000194 
the 0.314845 -0.594966 0.364453 -0.303990 -0.163298 -0.208138 -0.063397 -0.274273 0.008039 0.313427 0.077980 0.230821 -0.303666 0.069646 0.034396 0.713454 0.144248 -0.182218 0.363876 0.619664 -0.351316 0.002414 0.434149 -0.429740 0.368150 -0.709280 -0.076584 0.168682 -0.111134 0.291124 0.056759 0.236357 -0.216234 -0.151878 -0.429654 0.020701 0.152160 -0.012689 -0.365258 -0.284180 -0.031743 0.322464 -0.294811 0.017445 -0.004059 0.215779 -0.119879 -0.232236 -0.321151 0.301774 -0.126148 -0.517174 0.345968 0.640385 -0.217424 0.308738 0.219053 -0.115701 -0.205319 -0.211564 0.195052 -0.465845 0.079989 -0.314120 -0.489292 0.393189 0.506710 0.444550 0.090913 -0.041937 0.019073 -0.211669 -0.068794 -0.324646 0.286798 -0.096603 -0.458527 -0.017360 -0.027033 0.193178 0.239730 0.050892 0.067579 -0.175215 0.044952 0.132419 -0.129821 0.273940 0.560339 0.021715 0.215951 0.731709 0.132121 0.113550 0.430923 0.344183 -0.263545 0.435532 -0.201218 -0.027319 
, 0.061619 -0.565545 0.125936 -0.284422 -0.169127 0.460509 0.006625 -0.329331 0.336665 0.193879 -0.132434 0.249105 -0.175773 -0.082793 -0.508019 0.721060 0.760420 0.176019 0.246262 0.204314 -0.036362 0.074625 0.350433 -0.545271 0.286622 0.015969 0.181921 0.125430 0.076984 0.101759 -0.054494 -0.030594 -0.198813 0.228708 -0.216355 0.340003 0.244340 -0.195765 -0.119334 -0.120226 -0.318529 0.204634 0.185596 0.069793 0.452572 -0.086685 0.141807 -0.011995 -0.132059 -0.212667 -0.142585 -0.398395 -0.025111 0.381179 -0.108959 0.118045 0.097696 0.146426 -0.037016 -0.224785 -0.025545 -0.028420 0.267363 -0.368773 0.066806 0.377338 -0.069999 0.191271 0.208339 0.765346 -0.036333 0.458936 -0.107518 -0.250389 -0.237289 0.171875 0.037814 0.242127 0.013300 -0.237103 0.670932 0.376154 -0.036636 -0.018235 0.258066 -0.027170 -0.148790 0.426763 0.525802 0.158871 -0.257020 0.297436 0.124205 0.011005 0.495096 -0.158856 0.035228 0.189957 -0.267969 0.279380 
. -0.116517 -0.631137 0.172816 -0.262048 -0.040504 0.169117 -0.205499 -0.148350 0.189173 -0.031506 -0.269349 0.609523 0.305698 0.023472 -0.190445 0.771157 0.612304 -0.063000 0.169066 0.124187 -0.252965 0.417390 0.571047 -0.499795 0.302955 -0.171781 -0.112887 -0.118344 -0.068801 0.051599 0.114658 0.144728 -0.341774 0.481746 -0.240515 0.133912 0.308567 -0.004850 0.110450 -0.254397 -0.202240 0.070778 0.094780 -0.098785 0.370708 0.007306 -0.049338 0.102309 0.098400 -0.195322 0.121543 -0.620514 -0.073040 0.195811 -0.309233 -0.020104 0.643815 0.071323 -0.093095 -0.374297 0.072836 -0.204757 0.191280 -0.432853 0.101545 0.427208 0.164303 0.246313 0.311429 0.849791 0.004568 0.328126 -0.185645 -0.371651 -0.270725 -0.013400 0.010909 0.024112 -0.176938 -0.180654 0.428156 0.150460 -0.219369 -0.015102 0.349785 0.259967 -0.081237 0.262176 0.586780 0.224804 -0.204084 0.548801 0.081115 0.046538 0.352024 0.230098 -0.050318 0.615924 -0.423620 0.186570 
to 0.197442 -0.637852 0.723793 0.228265 -0.209489 -0.129083 -0.670591 0.056749 -0.057080 0.130906 0.301211 0.642520 -0.070317 -0.087481 -0.137675 0.726758 0.106588 0.474221 0.246820 0.491766 -0.607310 0.497473 0.881727 -0.534083 0.245447 -0.569059 0.242032 0.243613 0.119737 -0.130820 0.102177 -0.087899 -0.169788 0.058290 -0.371190 -0.220458 -0.135389 -0.418148 0.004503 -0.117781 0.051623 0.200558 0.079214 0.189447 0.345060 0.115508 0.278469 -0.390066 -0.054803 0.276937 0.225973 0.174490 0.168700 0.613848 -0.076020 0.297264 0.610255 -0.114901 0.122851 -0.519626 -0.184751 -0.170900 0.237678 0.170298 -0.262081 0.550583 0.314583 0.309496 0.455486 0.457544 -0.222367 -0.053423 0.203402 -0.134627 -0.314593 0.259869 -0.159606 -0.078012 -0.077576 0.530603 0.207414 0.353165 -0.352815 0.063989 0.172238 0.499691 0.351273 0.515554 0.241985 0.111153 0.005629 0.443102 -0.193660 0.164820 0.408761 0.341338 -0.077911 0.112802 -0.377645 0.043298 
of 0.822699 -0.084458 0.351674 -0.595382 -0.094335 0.468603 -0.342321 -0.167341 -0.095108 0.358324 0.106469 0.054707 -0.374442 -0.018412 -0.467275 0.912275 0.329342 0.172564 -0.090153 0.366063 -0.317755 -0.214687 0.428383 -0.211940 0.077816 -0.345565 -0.095127 0.285491 -0.314865 0.237964 -0.031317 0.130597 -0.199260 -0.021495 -0.299198 0.363026 -0.061446 0.546852 0.140084 -0.277546 -0.139779 0.092069 0.281249 0.535820 0.502602 -0.347799 0.263516 -0.302707 -0.572312 0.010951 0.147274 -0.565693 0.541944 0.677353 0.332026 0.444431 0.528438 -0.012667 -0.455239 -0.092439 -0.098317 -0.929643 0.200372 -0.229893 -0.329217 0.246190 0.498305 0.285195 0.034301 0.017304 -0.295977 0.020165 -0.247008 -0.546241 0.137662 -0.169849 -0.558619 0.172896 -0.197077 0.082759 0.170382 0.589134 -0.203385 -0.275833 -0.114326 0.317886 -0.273291 0.532866 0.594674 0.065636 0.239919 0.498163 -0.506829 -0.160683 0.274325 0.576139 -0.071314 0.532383 -0.184705 0.031909 
in 0.270030 -0.590094 0.236622 -0.266904 -0.478570 0.165992 -0.168065 -0.198257 -0.090045 0.165765 -0.163420 0.543254 -0.405209 0.048136 0.044066 0.602239 0.463040 0.344382 0.049385 0.597590 -0.170969 0.201900 0.158900 -0.253573 0.618351 -0.267107 -0.010892 0.211295 -0.287131 0.224411 0.183081 0.151509 -0.635352 -0.026982 -0.181967 -0.027524 0.211219 -0.010205 0.103330 -0.235990 -0.067206 0.296948 -0.547320 0.461950 -0.145082 -0.325430 -0.171588 -0.204977 -0.016482 0.095791 0.147713 -0.211274 0.352917 0.575098 0.172565 0.464926 0.534388 -0.387016 -0.178260 -0.425040 -0.327271 -0.479473 -0.136279 -0.372879 -0.422219 0.439108 0.425234 0.151423 0.399286 0.701726 -0.396379 0.121262 0.061945 -0.193391 0.237545 0.140563 -0.068307 0.361672 0.148818 -0.032634 -0.099206 0.255565 -0.179799 0.096437 0.067286 0.172372 0.079567 0.112269 0.804578 0.257359 0.130183 0.682744 0.061542 -0.072163 0.464938 -0.105793 -0.526269 0.749039 -0.075960 -0.034601 
" 0.028575 -0.296127 0.339668 -0.089125 0.026829 0.088406 -0.186125 -0.435523 0.587653 -0.022578 -0.313523 0.373738 0.066674 0.237574 -0.335378 0.756297 0.714792 0.277202 0.577172 0.194495 -0.274715 0.304427 -0.068499 -0.453141 0.516404 -0.352806 -0.494414 0.151882 0.555560 0.481371 0.030771 0.504485 -0.299580 0.094888 -0.238070 0.039943 0.316427 0.074882 0.014610 -0.006180 -0.336177 0.412635 0.144923 -0.144358 0.377199 0.181192 0.038284 0.172755 0.086300 -0.153045 -0.111700 -0.469687 0.291809 0.047181 -0.184703 -0.188811 0.302752 0.080674 -0.352981 -0.021641 0.174459 -0.025047 0.178379 -0.098903 -0.322968 0.262168 0.024404 0.188568 0.340431 0.703774 -0.142533 -0.108977 -0.118261 -0.685037 -0.179481 -0.033825 -0.210655 -0.062774 0.071595 0.055569 0.545248 0.232947 -0.131283 -0.166819 0.332303 0.523019 0.199877 0.583822 0.458352 0.068974 -0.328188 0.582570 0.245179 -0.111149 0.306251 -0.242629 -0.165446 0.103968 -0.345501 0.030228 
a 0.011511 -0.232540 0.562807 -0.082110 -0.009842 -0.148571 0.074057 -0.611091 0.185468 0.572255 0.112890 0.022776 -0.364913 -0.046896 0.219115 0.594911 0.353354 -0.028484 0.635191 0.782276 -0.578919 -0.235713 0.408598 -0.258895 0.436848 -0.591067 -0.247372 -0.311735 0.036831 0.424034 -0.195738 0.356345 -0.521203 -0.230719 -0.511835 -0.346552 0.082060 -0.167051 -0.674936 -0.031044 -0.217424 0.032647 -0.319937 -0.430559 0.200622 0.092926 0.037827 -0.666964 0.009919 0.155216 0.089366 -0.248312 0.371653 0.263414 -0.052644 0.362517 0.152027 -0.040275 -0.160895 -0.333107 0.309348 -0.364230 0.222913 -0.260666 -0.240571 0.662834 0.595740 0.086899 0.319936 0.488346 -0.149231 -0.481083 0.300687 -0.677203 -0.114658 0.068302 -0.376407 0.249295 0.405189 0.311404 0.016463 -0.030252 0.041268 0.044339 -0.004299 0.008483 0.111671 0.262484 0.497072 0.214584 0.402537 0.570612 0.087245 0.026053 -0.044270 0.345816 0.194831 0.555670 -0.034593 0.061255 
